digraph Tree {
node [shape=box, style="filled, rounded", color="black", fontname=helvetica] ;
edge [fontname=helvetica] ;
0 [label="diseaseClassNameMSH <= 3.5\ngini = 0.69\nsamples = 851\nvalue = [118, 174, 17, 22, 559, 458]", fillcolor="#8139e51d"] ;
1 [label="Gene_Description <= 13.5\ngini = 0.61\nsamples = 748\nvalue = [1, 174, 0, 0, 559, 450]", fillcolor="#8139e526"] ;
0 -> 1 [labeldistance=2.5, labelangle=45, headlabel="True"] ;
2 [label="diseaseName <= 10.5\ngini = 0.48\nsamples = 393\nvalue = [0, 3, 0, 0, 249, 384]", fillcolor="#e5399d59"] ;
1 -> 2 ;
3 [label="diseaseClassNameMSH <= 1.5\ngini = 0.02\nsamples = 146\nvalue = [0, 3, 0, 0, 240, 0]", fillcolor="#8139e5fc"] ;
2 -> 3 ;
4 [label="gini = 0.0\nsamples = 68\nvalue = [0, 0, 0, 0, 117, 0]", fillcolor="#8139e5ff"] ;
3 -> 4 ;
5 [label="Gene_Description <= 8.5\ngini = 0.05\nsamples = 78\nvalue = [0, 3, 0, 0, 123, 0]", fillcolor="#8139e5f9"] ;
3 -> 5 ;
6 [label="gini = 0.0\nsamples = 76\nvalue = [0, 0, 0, 0, 123, 0]", fillcolor="#8139e5ff"] ;
5 -> 6 ;
7 [label="gini = 0.0\nsamples = 2\nvalue = [0, 3, 0, 0, 0, 0]", fillcolor="#9de539ff"] ;
5 -> 7 ;
8 [label="score <= 0.02\ngini = 0.04\nsamples = 247\nvalue = [0, 0, 0, 0, 9, 384]", fillcolor="#e5399df9"] ;
2 -> 8 ;
9 [label="DSI <= 0.57\ngini = 0.1\nsamples = 100\nvalue = [0, 0, 0, 0, 9, 153]", fillcolor="#e5399df0"] ;
8 -> 9 ;
10 [label="Gene_Description <= 12.0\ngini = 0.27\nsamples = 32\nvalue = [0, 0, 0, 0, 9, 47]", fillcolor="#e5399dce"] ;
9 -> 10 ;
11 [label="score <= 0.01\ngini = 0.5\nsamples = 10\nvalue = [0, 0, 0, 0, 9, 9]", fillcolor="#8139e500"] ;
10 -> 11 ;
12 [label="DPI <= 0.67\ngini = 0.49\nsamples = 9\nvalue = [0, 0, 0, 0, 7, 9]", fillcolor="#e5399d39"] ;
11 -> 12 ;
13 [label="DSI <= 0.54\ngini = 0.49\nsamples = 5\nvalue = [0, 0, 0, 0, 5, 4]", fillcolor="#8139e533"] ;
12 -> 13 ;
14 [label="gini = 0.0\nsamples = 1\nvalue = [0, 0, 0, 0, 3, 0]", fillcolor="#8139e5ff"] ;
13 -> 14 ;
15 [label="Gene_Description <= 8.0\ngini = 0.44\nsamples = 4\nvalue = [0, 0, 0, 0, 2, 4]", fillcolor="#e5399d7f"] ;
13 -> 15 ;
16 [label="gini = 0.0\nsamples = 3\nvalue = [0, 0, 0, 0, 0, 4]", fillcolor="#e5399dff"] ;
15 -> 16 ;
17 [label="gini = 0.0\nsamples = 1\nvalue = [0, 0, 0, 0, 2, 0]", fillcolor="#8139e5ff"] ;
15 -> 17 ;
18 [label="Gene_Description <= 6.0\ngini = 0.41\nsamples = 4\nvalue = [0, 0, 0, 0, 2, 5]", fillcolor="#e5399d99"] ;
12 -> 18 ;
19 [label="gini = 0.0\nsamples = 3\nvalue = [0, 0, 0, 0, 0, 5]", fillcolor="#e5399dff"] ;
18 -> 19 ;
20 [label="gini = 0.0\nsamples = 1\nvalue = [0, 0, 0, 0, 2, 0]", fillcolor="#8139e5ff"] ;
18 -> 20 ;
21 [label="gini = 0.0\nsamples = 1\nvalue = [0, 0, 0, 0, 2, 0]", fillcolor="#8139e5ff"] ;
11 -> 21 ;
22 [label="gini = 0.0\nsamples = 22\nvalue = [0, 0, 0, 0, 0, 38]", fillcolor="#e5399dff"] ;
10 -> 22 ;
23 [label="gini = 0.0\nsamples = 68\nvalue = [0, 0, 0, 0, 0, 106]", fillcolor="#e5399dff"] ;
9 -> 23 ;
24 [label="gini = 0.0\nsamples = 147\nvalue = [0, 0, 0, 0, 0, 231]", fillcolor="#e5399dff"] ;
8 -> 24 ;
25 [label="Gene_Description <= 14.5\ngini = 0.57\nsamples = 355\nvalue = [1, 171, 0, 0, 310, 66]", fillcolor="#8139e55e"] ;
1 -> 25 ;
26 [label="gini = 0.0\nsamples = 98\nvalue = [0, 162, 0, 0, 0, 0]", fillcolor="#9de539ff"] ;
25 -> 26 ;
27 [label="diseaseType <= 0.5\ngini = 0.33\nsamples = 257\nvalue = [1, 9, 0, 0, 310, 66]", fillcolor="#8139e5c2"] ;
25 -> 27 ;
28 [label="diseaseName <= 8.5\ngini = 0.2\nsamples = 164\nvalue = [1, 9, 0, 0, 219, 17]", fillcolor="#8139e5e1"] ;
27 -> 28 ;
29 [label="DPI <= 0.5\ngini = 0.08\nsamples = 153\nvalue = [0, 9, 0, 0, 219, 0]", fillcolor="#8139e5f5"] ;
28 -> 29 ;
30 [label="DSI <= 0.66\ngini = 0.16\nsamples = 52\nvalue = [0, 7, 0, 0, 71, 0]", fillcolor="#8139e5e6"] ;
29 -> 30 ;
31 [label="DPI <= 0.43\ngini = 0.39\nsamples = 17\nvalue = [0, 7, 0, 0, 19, 0]", fillcolor="#8139e5a1"] ;
30 -> 31 ;
32 [label="gini = 0.0\nsamples = 8\nvalue = [0, 0, 0, 0, 10, 0]", fillcolor="#8139e5ff"] ;
31 -> 32 ;
33 [label="score <= 0.01\ngini = 0.49\nsamples = 9\nvalue = [0, 7, 0, 0, 9, 0]", fillcolor="#8139e539"] ;
31 -> 33 ;
34 [label="DSI <= 0.61\ngini = 0.49\nsamples = 4\nvalue = [0, 4, 0, 0, 3, 0]", fillcolor="#9de53940"] ;
33 -> 34 ;
35 [label="gini = 0.0\nsamples = 2\nvalue = [0, 0, 0, 0, 3, 0]", fillcolor="#8139e5ff"] ;
34 -> 35 ;
36 [label="gini = 0.0\nsamples = 2\nvalue = [0, 4, 0, 0, 0, 0]", fillcolor="#9de539ff"] ;
34 -> 36 ;
37 [label="score <= 0.17\ngini = 0.44\nsamples = 5\nvalue = [0, 3, 0, 0, 6, 0]", fillcolor="#8139e57f"] ;
33 -> 37 ;
38 [label="gini = 0.0\nsamples = 1\nvalue = [0, 0, 0, 0, 2, 0]", fillcolor="#8139e5ff"] ;
37 -> 38 ;
39 [label="DPI <= 0.47\ngini = 0.49\nsamples = 4\nvalue = [0, 3, 0, 0, 4, 0]", fillcolor="#8139e540"] ;
37 -> 39 ;
40 [label="DSI <= 0.62\ngini = 0.38\nsamples = 2\nvalue = [0, 3, 0, 0, 1, 0]", fillcolor="#9de539aa"] ;
39 -> 40 ;
41 [label="gini = 0.0\nsamples = 1\nvalue = [0, 3, 0, 0, 0, 0]", fillcolor="#9de539ff"] ;
40 -> 41 ;
42 [label="gini = 0.0\nsamples = 1\nvalue = [0, 0, 0, 0, 1, 0]", fillcolor="#8139e5ff"] ;
40 -> 42 ;
43 [label="gini = 0.0\nsamples = 2\nvalue = [0, 0, 0, 0, 3, 0]", fillcolor="#8139e5ff"] ;
39 -> 43 ;
44 [label="gini = 0.0\nsamples = 35\nvalue = [0, 0, 0, 0, 52, 0]", fillcolor="#8139e5ff"] ;
30 -> 44 ;
45 [label="score <= 0.02\ngini = 0.03\nsamples = 101\nvalue = [0, 2, 0, 0, 148, 0]", fillcolor="#8139e5fc"] ;
29 -> 45 ;
46 [label="DPI <= 0.71\ngini = 0.05\nsamples = 48\nvalue = [0, 2, 0, 0, 69, 0]", fillcolor="#8139e5f8"] ;
45 -> 46 ;
47 [label="gini = 0.0\nsamples = 24\nvalue = [0, 0, 0, 0, 35, 0]", fillcolor="#8139e5ff"] ;
46 -> 47 ;
48 [label="DPI <= 0.74\ngini = 0.1\nsamples = 24\nvalue = [0, 2, 0, 0, 34, 0]", fillcolor="#8139e5f0"] ;
46 -> 48 ;
49 [label="DSI <= 0.54\ngini = 0.24\nsamples = 5\nvalue = [0, 1, 0, 0, 6, 0]", fillcolor="#8139e5d4"] ;
48 -> 49 ;
50 [label="score <= 0.01\ngini = 0.44\nsamples = 2\nvalue = [0, 1, 0, 0, 2, 0]", fillcolor="#8139e57f"] ;
49 -> 50 ;
51 [label="gini = 0.0\nsamples = 1\nvalue = [0, 0, 0, 0, 2, 0]", fillcolor="#8139e5ff"] ;
50 -> 51 ;
52 [label="gini = 0.0\nsamples = 1\nvalue = [0, 1, 0, 0, 0, 0]", fillcolor="#9de539ff"] ;
50 -> 52 ;
53 [label="gini = 0.0\nsamples = 3\nvalue = [0, 0, 0, 0, 4, 0]", fillcolor="#8139e5ff"] ;
49 -> 53 ;
54 [label="score <= 0.01\ngini = 0.07\nsamples = 19\nvalue = [0, 1, 0, 0, 28, 0]", fillcolor="#8139e5f6"] ;
48 -> 54 ;
55 [label="DSI <= 0.38\ngini = 0.07\nsamples = 18\nvalue = [0, 1, 0, 0, 26, 0]", fillcolor="#8139e5f5"] ;
54 -> 55 ;
56 [label="DPI <= 0.9\ngini = 0.44\nsamples = 2\nvalue = [0, 1, 0, 0, 2, 0]", fillcolor="#8139e57f"] ;
55 -> 56 ;
57 [label="gini = 0.0\nsamples = 1\nvalue = [0, 1, 0, 0, 0, 0]", fillcolor="#9de539ff"] ;
56 -> 57 ;
58 [label="gini = 0.0\nsamples = 1\nvalue = [0, 0, 0, 0, 2, 0]", fillcolor="#8139e5ff"] ;
56 -> 58 ;
59 [label="gini = 0.0\nsamples = 16\nvalue = [0, 0, 0, 0, 24, 0]", fillcolor="#8139e5ff"] ;
55 -> 59 ;
60 [label="gini = 0.0\nsamples = 1\nvalue = [0, 0, 0, 0, 2, 0]", fillcolor="#8139e5ff"] ;
54 -> 60 ;
61 [label="gini = 0.0\nsamples = 53\nvalue = [0, 0, 0, 0, 79, 0]", fillcolor="#8139e5ff"] ;
45 -> 61 ;
62 [label="diseaseSemanticType <= 0.5\ngini = 0.1\nsamples = 11\nvalue = [1, 0, 0, 0, 0, 17]", fillcolor="#e5399df0"] ;
28 -> 62 ;
63 [label="gini = 0.0\nsamples = 1\nvalue = [1, 0, 0, 0, 0, 0]", fillcolor="#e58139ff"] ;
62 -> 63 ;
64 [label="gini = 0.0\nsamples = 10\nvalue = [0, 0, 0, 0, 0, 17]", fillcolor="#e5399dff"] ;
62 -> 64 ;
65 [label="Gene_Description <= 15.5\ngini = 0.45\nsamples = 93\nvalue = [0, 0, 0, 0, 91, 49]", fillcolor="#8139e576"] ;
27 -> 65 ;
66 [label="gini = 0.0\nsamples = 31\nvalue = [0, 0, 0, 0, 0, 49]", fillcolor="#e5399dff"] ;
65 -> 66 ;
67 [label="gini = 0.0\nsamples = 62\nvalue = [0, 0, 0, 0, 91, 0]", fillcolor="#8139e5ff"] ;
65 -> 67 ;
68 [label="diseaseName <= 1.5\ngini = 0.46\nsamples = 103\nvalue = [117, 0, 17, 22, 0, 8]", fillcolor="#e58139ab"] ;
0 -> 68 [labeldistance=2.5, labelangle=-45, headlabel="False"] ;
69 [label="gini = 0.0\nsamples = 59\nvalue = [100, 0, 0, 0, 0, 0]", fillcolor="#e58139ff"] ;
68 -> 69 ;
70 [label="diseaseClass <= 1.5\ngini = 0.73\nsamples = 44\nvalue = [17, 0, 17, 22, 0, 8]", fillcolor="#399de51b"] ;
68 -> 70 ;
71 [label="gini = 0.0\nsamples = 7\nvalue = [0, 0, 0, 0, 0, 8]", fillcolor="#e5399dff"] ;
70 -> 71 ;
72 [label="diseaseName <= 13.0\ngini = 0.66\nsamples = 37\nvalue = [17, 0, 17, 22, 0, 0]", fillcolor="#399de521"] ;
70 -> 72 ;
73 [label="DPI <= 0.64\ngini = 0.49\nsamples = 24\nvalue = [0, 0, 17, 22, 0, 0]", fillcolor="#399de53a"] ;
72 -> 73 ;
74 [label="DSI <= 0.55\ngini = 0.14\nsamples = 7\nvalue = [0, 0, 1, 12, 0, 0]", fillcolor="#399de5ea"] ;
73 -> 74 ;
75 [label="gini = 0.0\nsamples = 1\nvalue = [0, 0, 1, 0, 0, 0]", fillcolor="#39e581ff"] ;
74 -> 75 ;
76 [label="gini = 0.0\nsamples = 6\nvalue = [0, 0, 0, 12, 0, 0]", fillcolor="#399de5ff"] ;
74 -> 76 ;
77 [label="diseaseName <= 5.5\ngini = 0.47\nsamples = 17\nvalue = [0, 0, 16, 10, 0, 0]", fillcolor="#39e58160"] ;
73 -> 77 ;
78 [label="DPI <= 0.67\ngini = 0.48\nsamples = 11\nvalue = [0, 0, 7, 10, 0, 0]", fillcolor="#399de54d"] ;
77 -> 78 ;
79 [label="gini = 0.0\nsamples = 1\nvalue = [0, 0, 2, 0, 0, 0]", fillcolor="#39e581ff"] ;
78 -> 79 ;
80 [label="score <= 0.16\ngini = 0.44\nsamples = 10\nvalue = [0, 0, 5, 10, 0, 0]", fillcolor="#399de57f"] ;
78 -> 80 ;
81 [label="diseaseName <= 2.5\ngini = 0.5\nsamples = 4\nvalue = [0, 0, 4, 4, 0, 0]", fillcolor="#39e58100"] ;
80 -> 81 ;
82 [label="gini = 0.0\nsamples = 2\nvalue = [0, 0, 4, 0, 0, 0]", fillcolor="#39e581ff"] ;
81 -> 82 ;
83 [label="gini = 0.0\nsamples = 2\nvalue = [0, 0, 0, 4, 0, 0]", fillcolor="#399de5ff"] ;
81 -> 83 ;
84 [label="DSI <= 0.53\ngini = 0.24\nsamples = 6\nvalue = [0, 0, 1, 6, 0, 0]", fillcolor="#399de5d4"] ;
80 -> 84 ;
85 [label="gini = 0.0\nsamples = 4\nvalue = [0, 0, 0, 5, 0, 0]", fillcolor="#399de5ff"] ;
84 -> 85 ;
86 [label="diseaseName <= 2.5\ngini = 0.5\nsamples = 2\nvalue = [0, 0, 1, 1, 0, 0]", fillcolor="#39e58100"] ;
84 -> 86 ;
87 [label="gini = 0.0\nsamples = 1\nvalue = [0, 0, 1, 0, 0, 0]", fillcolor="#39e581ff"] ;
86 -> 87 ;
88 [label="gini = 0.0\nsamples = 1\nvalue = [0, 0, 0, 1, 0, 0]", fillcolor="#399de5ff"] ;
86 -> 88 ;
89 [label="gini = 0.0\nsamples = 6\nvalue = [0, 0, 9, 0, 0, 0]", fillcolor="#39e581ff"] ;
77 -> 89 ;
90 [label="gini = 0.0\nsamples = 13\nvalue = [17, 0, 0, 0, 0, 0]", fillcolor="#e58139ff"] ;
72 -> 90 ;
}